<?xml version="1.0"?>
<opencv_storage>
<cascade>
  <stageType>BOOST</stageType>
  <featureType>HAAR</featureType>
  <height>24</height>
  <width>24</width>
  <stageParams>
    <boostType>GAB</boostType>
    <minHitRate>9.9900001287460327e-01</minHitRate>
    <maxFalseAlarm>4.0000000596046448e-01</maxFalseAlarm>
    <weightTrimRate>9.4999999999999996e-01</weightTrimRate>
    <maxDepth>1</maxDepth>
    <maxWeakCount>100</maxWeakCount></stageParams>
  <featureParams>
    <maxCatCount>0</maxCatCount>
    <featSize>1</featSize>
    <mode>BASIC</mode></featureParams>
  <stageNum>11</stageNum>
  <stages>
    <!-- stage 0 -->
    <_>
      <maxWeakCount>4</maxWeakCount>
      <stageThreshold>-2.2757415771484375e+00</stageThreshold>
      <weakClassifiers>
        <_>
          <internalNodes>
            0 -1 18 -1.3396665453910828e-01</internalNodes>
          <leafValues>
            8.3870965242385864e-01 -9.5812809467315674e-01</leafValues></_>
        <_>
          <internalNodes>
            0 -1 41 -2.4831350892782211e-02</internalNodes>
          <leafValues>
            -8.8413190841674805e-01 5.7872205972671509e-01</leafValues></_>
        <_>
          <internalNodes>
            0 -1 22 -9.3863472342491150e-02</internalNodes>
          <leafValues>
            5.5599963665008545e-01 -8.5154139995574951e-01</leafValues></_>
        <_>
          <internalNodes>
            0 -1 49 -9.8206195980310440e-03</internalNodes>
          <leafValues>
            -1. 4.1805970668792725e-01</leafValues></_></weakClassifiers></_>
    <!-- stage 1 -->
    <_>
      <maxWeakCount>3</maxWeakCount>
      <stageThreshold>-1.4369002580642700e+00</stageThreshold>
      <weakClassifiers>
        <_>
          <internalNodes>
            0 -1 19 -8.5512787103652954e-02</internalNodes>
          <leafValues>
            7.2881358861923218e-01 -9.4355827569961548e-01</leafValues></_>
        <_>
          <internalNodes>
            0 -1 5 3.7174198776483536e-02</internalNodes>
          <leafValues>
            -8.7018340826034546e-01 4.1029852628707886e-01</leafValues></_>
        <_>
          <internalNodes>
            0 -1 8 1.7061749473214149e-02</internalNodes>
          <leafValues>
            -9.0364044904708862e-01 4.3981608748435974e-01</leafValues></_></weakClassifiers></_>
    <!-- stage 2 -->
    <_>
      <maxWeakCount>4</maxWeakCount>
      <stageThreshold>-2.1747493743896484e+00</stageThreshold>
      <weakClassifiers>
        <_>
          <internalNodes>
            0 -1 25 -3.8947828114032745e-02</internalNodes>
          <leafValues>
            3.4328359365463257e-01 -9.2812889814376831e-01</leafValues></_>
        <_>
          <internalNodes>
            0 -1 21 -1.3040274381637573e-01</internalNodes>
          <leafValues>
            1.7999961972236633e-01 -8.4843087196350098e-01</leafValues></_>
        <_>
          <internalNodes>
            0 -1 2 5.6723803281784058e-03</internalNodes>
          <leafValues>
            -9.6448373794555664e-01 2.5185295939445496e-01</leafValues></_>
        <_>
          <internalNodes>
            0 -1 33 -1.2528274673968554e-03</internalNodes>
          <leafValues>
            4.4699510931968689e-01 -6.5004253387451172e-01</leafValues></_></weakClassifiers></_>
    <!-- stage 3 -->
    <_>
      <maxWeakCount>5</maxWeakCount>
      <stageThreshold>-1.9398199319839478e+00</stageThreshold>
      <weakClassifiers>
        <_>
          <internalNodes>
            0 -1 15 -1.6088241338729858e-01</internalNodes>
          <leafValues>
            7.8571426868438721e-01 -8.8416075706481934e-01</leafValues></_>
        <_>
          <internalNodes>
            0 -1 17 -1.6540825366973877e-01</internalNodes>
          <leafValues>
            5.0245076417922974e-01 -6.8782013654708862e-01</leafValues></_>
        <_>
          <internalNodes>
            0 -1 28 -8.0039083957672119e-02</internalNodes>
          <leafValues>
            3.2493862509727478e-01 -7.8898304700851440e-01</leafValues></_>
        <_>
          <internalNodes>
            0 -1 1 -6.8839192390441895e-02</internalNodes>
          <leafValues>
            -1. 1.8464587628841400e-01</leafValues></_>
        <_>
          <internalNodes>
            0 -1 23 -5.1482059061527252e-02</internalNodes>
          <leafValues>
            2.3649808764457703e-01 -1.</leafValues></_></weakClassifiers></_>
    <!-- stage 4 -->
    <_>
      <maxWeakCount>5</maxWeakCount>
      <stageThreshold>-2.0196068286895752e+00</stageThreshold>
      <weakClassifiers>
        <_>
          <internalNodes>
            0 -1 38 -4.4674733653664589e-03</internalNodes>
          <leafValues>
            -9.3103450536727905e-01 3.2967034727334976e-02</leafValues></_>
        <_>
          <internalNodes>
            0 -1 32 -1.3483385555446148e-03</internalNodes>
          <leafValues>
            7.6557523012161255e-01 -6.7057460546493530e-01</leafValues></_>
        <_>
          <internalNodes>
            0 -1 12 1.6800713539123535e-01</internalNodes>
          <leafValues>
            -5.5356895923614502e-01 5.8061760663986206e-01</leafValues></_>
        <_>
          <internalNodes>
            0 -1 40 -1.8965702503919601e-02</internalNodes>
          <leafValues>
            -6.7437636852264404e-01 4.3443280458450317e-01</leafValues></_>
        <_>
          <internalNodes>
            0 -1 48 -1.7624170868657529e-04</internalNodes>
          <leafValues>
            3.8245651125907898e-01 -6.2620216608047485e-01</leafValues></_></weakClassifiers></_>
    <!-- stage 5 -->
    <_>
      <maxWeakCount>6</maxWeakCount>
      <stageThreshold>-1.8311343193054199e+00</stageThreshold>
      <weakClassifiers>
        <_>
          <internalNodes>
            0 -1 13 -2.4162051081657410e-01</internalNodes>
          <leafValues>
            1. -8.5614848136901855e-01</leafValues></_>
        <_>
          <internalNodes>
            0 -1 46 -4.4388958485797048e-04</internalNodes>
          <leafValues>
            3.4187114238739014e-01 -6.8967747688293457e-01</leafValues></_>
        <_>
          <internalNodes>
            0 -1 47 3.0149210942909122e-04</internalNodes>
          <leafValues>
            -6.6900837421417236e-01 3.3965328335762024e-01</leafValues></_>
        <_>
          <internalNodes>
            0 -1 16 2.0567405968904495e-02</internalNodes>
          <leafValues>
            -6.2100303173065186e-01 3.9751967787742615e-01</leafValues></_>
        <_>
          <internalNodes>
            0 -1 20 -6.4397562528029084e-04</internalNodes>
          <leafValues>
            6.6473597288131714e-01 -3.5241410136222839e-01</leafValues></_>
        <_>
          <internalNodes>
            0 -1 6 -3.1059058383107185e-03</internalNodes>
          <leafValues>
            3.3859443664550781e-01 -6.6282957792282104e-01</leafValues></_></weakClassifiers></_>
    <!-- stage 6 -->
    <_>
      <maxWeakCount>5</maxWeakCount>
      <stageThreshold>-1.5739076137542725e+00</stageThreshold>
      <weakClassifiers>
        <_>
          <internalNodes>
            0 -1 9 -1.4600697159767151e-01</internalNodes>
          <leafValues>
            -1.0256410390138626e-01 -9.0201002359390259e-01</leafValues></_>
        <_>
          <internalNodes>
            0 -1 14 -1.6429112851619720e-01</internalNodes>
          <leafValues>
            5.4164610803127289e-02 -7.2837376594543457e-01</leafValues></_>
        <_>
          <internalNodes>
            0 -1 33 -1.1237589642405510e-03</internalNodes>
          <leafValues>
            3.1011512875556946e-01 -5.5408835411071777e-01</leafValues></_>
        <_>
          <internalNodes>
            0 -1 35 1.8564928905107081e-04</internalNodes>
          <leafValues>
            2.2505670785903931e-01 -7.1857815980911255e-01</leafValues></_>
        <_>
          <internalNodes>
            0 -1 4 6.0986172407865524e-02</internalNodes>
          <leafValues>
            -3.1604471802711487e-01 5.4660433530807495e-01</leafValues></_></weakClassifiers></_>
    <!-- stage 7 -->
    <_>
      <maxWeakCount>4</maxWeakCount>
      <stageThreshold>-1.5020611286163330e+00</stageThreshold>
      <weakClassifiers>
        <_>
          <internalNodes>
            0 -1 39 9.3837745953351259e-04</internalNodes>
          <leafValues>
            -8.8613861799240112e-01 -1.5151515603065491e-01</leafValues></_>
        <_>
          <internalNodes>
            0 -1 36 1.7226565629243851e-02</internalNodes>
          <leafValues>
            -6.7380017042160034e-01 2.1163530647754669e-01</leafValues></_>
        <_>
          <internalNodes>
            0 -1 30 1.0861789342015982e-03</internalNodes>
          <leafValues>
            -3.4632965922355652e-01 7.2976875305175781e-01</leafValues></_>
        <_>
          <internalNodes>
            0 -1 29 5.6560465600341558e-04</internalNodes>
          <leafValues>
            -3.3041611313819885e-01 6.5773171186447144e-01</leafValues></_></weakClassifiers></_>
    <!-- stage 8 -->
    <_>
      <maxWeakCount>8</maxWeakCount>
      <stageThreshold>-1.5817668437957764e+00</stageThreshold>
      <weakClassifiers>
        <_>
          <internalNodes>
            0 -1 10 -1.2736959755420685e-01</internalNodes>
          <leafValues>
            1. -8.4971100091934204e-01</leafValues></_>
        <_>
          <internalNodes>
            0 -1 3 9.2377842520363629e-05</internalNodes>
          <leafValues>
            -9.3987184762954712e-01 -1.2927351891994476e-01</leafValues></_>
        <_>
          <internalNodes>
            0 -1 7 -5.4871894419193268e-02</internalNodes>
          <leafValues>
            2.0465761423110962e-01 -6.4505481719970703e-01</leafValues></_>
        <_>
          <internalNodes>
            0 -1 44 -2.6828724890947342e-02</internalNodes>
          <leafValues>
            -6.5322571992874146e-01 2.8343486785888672e-01</leafValues></_>
        <_>
          <internalNodes>
            0 -1 43 -1.2278039939701557e-03</internalNodes>
          <leafValues>
            6.0584872961044312e-01 -3.3635902404785156e-01</leafValues></_>
        <_>
          <internalNodes>
            0 -1 0 2.0039461087435484e-03</internalNodes>
          <leafValues>
            -6.7322140932083130e-01 2.9911622405052185e-01</leafValues></_>
        <_>
          <internalNodes>
            0 -1 27 1.0209765750914812e-03</internalNodes>
          <leafValues>
            -3.1550773978233337e-01 6.3402640819549561e-01</leafValues></_>
        <_>
          <internalNodes>
            0 -1 50 -1.6374085098505020e-03</internalNodes>
          <leafValues>
            -9.0938258171081543e-01 2.3421332240104675e-01</leafValues></_></weakClassifiers></_>
    <!-- stage 9 -->
    <_>
      <maxWeakCount>5</maxWeakCount>
      <stageThreshold>-1.4992891550064087e+00</stageThreshold>
      <weakClassifiers>
        <_>
          <internalNodes>
            0 -1 26 1.4080733060836792e-01</internalNodes>
          <leafValues>
            -8.5581398010253906e-01 7.1428573131561279e-01</leafValues></_>
        <_>
          <internalNodes>
            0 -1 37 -1.7308407695963979e-03</internalNodes>
          <leafValues>
            1.2448189407587051e-01 -7.0589929819107056e-01</leafValues></_>
        <_>
          <internalNodes>
            0 -1 53 -1.8529063090682030e-03</internalNodes>
          <leafValues>
            -9.4986623525619507e-01 1.2715855240821838e-01</leafValues></_>
        <_>
          <internalNodes>
            0 -1 45 6.3054135534912348e-04</internalNodes>
          <leafValues>
            -4.9038419127464294e-01 3.8419863581657410e-01</leafValues></_>
        <_>
          <internalNodes>
            0 -1 42 -7.6672609429806471e-04</internalNodes>
          <leafValues>
            4.2564970254898071e-01 -3.7953203916549683e-01</leafValues></_></weakClassifiers></_>
    <!-- stage 10 -->
    <_>
      <maxWeakCount>7</maxWeakCount>
      <stageThreshold>-1.5438649654388428e+00</stageThreshold>
      <weakClassifiers>
        <_>
          <internalNodes>
            0 -1 11 -1.1670332401990891e-01</internalNodes>
          <leafValues>
            9.6774190664291382e-02 -8.6476868391036987e-01</leafValues></_>
        <_>
          <internalNodes>
            0 -1 18 -1.3532340526580811e-01</internalNodes>
          <leafValues>
            -3.3260319381952286e-02 -7.0727229118347168e-01</leafValues></_>
        <_>
          <internalNodes>
            0 -1 24 -6.3930433988571167e-01</internalNodes>
          <leafValues>
            -9.3624997138977051e-01 1.1348783969879150e-01</leafValues></_>
        <_>
          <internalNodes>
            0 -1 34 -9.8652287852019072e-04</internalNodes>
          <leafValues>
            -8.5879766941070557e-01 1.4545239508152008e-01</leafValues></_>
        <_>
          <internalNodes>
            0 -1 31 -1.2031582882627845e-03</internalNodes>
          <leafValues>
            6.0266429185867310e-01 -3.0657967925071716e-01</leafValues></_>
        <_>
          <internalNodes>
            0 -1 52 -1.0450690984725952e-02</internalNodes>
          <leafValues>
            -1. 1.9279120862483978e-01</leafValues></_>
        <_>
          <internalNodes>
            0 -1 51 8.1830900162458420e-03</internalNodes>
          <leafValues>
            2.4682120978832245e-01 -7.9098773002624512e-01</leafValues></_></weakClassifiers></_></stages>
  <features>
    <_>
      <rects>
        <_>
          0 0 4 8 -1.</_>
        <_>
          0 0 2 4 2.</_>
        <_>
          2 4 2 4 2.</_></rects>
      <tilted>0</tilted></_>
    <_>
      <rects>
        <_>
          0 3 1 21 -1.</_>
        <_>
          0 10 1 7 2.</_></rects>
      <tilted>0</tilted></_>
    <_>
      <rects>
        <_>
          0 3 4 14 -1.</_>
        <_>
          2 3 2 14 2.</_></rects>
      <tilted>0</tilted></_>
    <_>
      <rects>
        <_>
          0 4 2 7 -1.</_>
        <_>
          1 4 1 7 2.</_></rects>
      <tilted>0</tilted></_>
    <_>
      <rects>
        <_>
          0 4 6 16 -1.</_>
        <_>
          3 4 3 16 2.</_></rects>
      <tilted>0</tilted></_>
    <_>
      <rects>
        <_>
          0 6 8 9 -1.</_>
        <_>
          4 6 4 9 2.</_></rects>
      <tilted>0</tilted></_>
    <_>
      <rects>
        <_>
          0 13 6 10 -1.</_>
        <_>
          0 13 3 5 2.</_>
        <_>
          3 18 3 5 2.</_></rects>
      <tilted>0</tilted></_>
    <_>
      <rects>
        <_>
          1 10 7 14 -1.</_>
        <_>
          1 17 7 7 2.</_></rects>
      <tilted>0</tilted></_>
    <_>
      <rects>
        <_>
          3 0 4 10 -1.</_>
        <_>
          3 5 4 5 2.</_></rects>
      <tilted>0</tilted></_>
    <_>
      <rects>
        <_>
          3 10 16 4 -1.</_>
        <_>
          11 10 8 4 2.</_></rects>
      <tilted>0</tilted></_>
    <_>
      <rects>
        <_>
          3 12 12 4 -1.</_>
        <_>
          9 12 6 4 2.</_></rects>
      <tilted>0</tilted></_>
    <_>
      <rects>
        <_>
          3 12 14 3 -1.</_>
        <_>
          10 12 7 3 2.</_></rects>
      <tilted>0</tilted></_>
    <_>
      <rects>
        <_>
          4 8 16 16 -1.</_>
        <_>
          4 8 8 8 2.</_>
        <_>
          12 16 8 8 2.</_></rects>
      <tilted>0</tilted></_>
    <_>
      <rects>
        <_>
          4 9 14 7 -1.</_>
        <_>
          11 9 7 7 2.</_></rects>
      <tilted>0</tilted></_>
    <_>
      <rects>
        <_>
          4 10 16 9 -1.</_>
        <_>
          12 10 8 9 2.</_></rects>
      <tilted>0</tilted></_>
    <_>
      <rects>
        <_>
          4 11 14 5 -1.</_>
        <_>
          11 11 7 5 2.</_></rects>
      <tilted>0</tilted></_>
    <_>
      <rects>
        <_>
          5 1 11 6 -1.</_>
        <_>
          5 4 11 3 2.</_></rects>
      <tilted>0</tilted></_>
    <_>
      <rects>
        <_>
          5 4 6 20 -1.</_>
        <_>
          5 14 6 10 2.</_></rects>
      <tilted>0</tilted></_>
    <_>
      <rects>
        <_>
          5 8 14 6 -1.</_>
        <_>
          12 8 7 6 2.</_></rects>
      <tilted>0</tilted></_>
    <_>
      <rects>
        <_>
          5 11 12 4 -1.</_>
        <_>
          11 11 6 4 2.</_></rects>
      <tilted>0</tilted></_>
    <_>
      <rects>
        <_>
          5 17 2 2 -1.</_>
        <_>
          6 17 1 2 2.</_></rects>
      <tilted>0</tilted></_>
    <_>
      <rects>
        <_>
          6 5 14 9 -1.</_>
        <_>
          13 5 7 9 2.</_></rects>
      <tilted>0</tilted></_>
    <_>
      <rects>
        <_>
          6 6 14 12 -1.</_>
        <_>
          13 6 7 12 2.</_></rects>
      <tilted>0</tilted></_>
    <_>
      <rects>
        <_>
          6 7 3 8 -1.</_>
        <_>
          7 7 1 8 2.</_></rects>
      <tilted>0</tilted></_>
    <_>
      <rects>
        <_>
          6 11 18 10 -1.</_>
        <_>
          12 11 6 10 2.</_></rects>
      <tilted>0</tilted></_>
    <_>
      <rects>
        <_>
          6 12 10 2 -1.</_>
        <_>
          11 12 5 2 2.</_></rects>
      <tilted>0</tilted></_>
    <_>
      <rects>
        <_>
          7 9 10 12 -1.</_>
        <_>
          7 9 5 6 2.</_>
        <_>
          12 15 5 6 2.</_></rects>
      <tilted>0</tilted></_>
    <_>
      <rects>
        <_>
          7 12 2 2 -1.</_>
        <_>
          7 12 1 1 2.</_>
        <_>
          8 13 1 1 2.</_></rects>
      <tilted>0</tilted></_>
    <_>
      <rects>
        <_>
          8 6 12 14 -1.</_>
        <_>
          14 6 6 14 2.</_></rects>
      <tilted>0</tilted></_>
    <_>
      <rects>
        <_>
          8 8 2 1 -1.</_>
        <_>
          9 8 1 1 2.</_></rects>
      <tilted>0</tilted></_>
    <_>
      <rects>
        <_>
          8 10 2 2 -1.</_>
        <_>
          8 10 1 1 2.</_>
        <_>
          9 11 1 1 2.</_></rects>
      <tilted>0</tilted></_>
    <_>
      <rects>
        <_>
          9 12 2 2 -1.</_>
        <_>
          9 12 1 1 2.</_>
        <_>
          10 13 1 1 2.</_></rects>
      <tilted>0</tilted></_>
    <_>
      <rects>
        <_>
          10 10 2 2 -1.</_>
        <_>
          10 10 1 1 2.</_>
        <_>
          11 11 1 1 2.</_></rects>
      <tilted>0</tilted></_>
    <_>
      <rects>
        <_>
          10 10 3 2 -1.</_>
        <_>
          10 11 3 1 2.</_></rects>
      <tilted>0</tilted></_>
    <_>
      <rects>
        <_>
          11 0 1 4 -1.</_>
        <_>
          11 2 1 2 2.</_></rects>
      <tilted>0</tilted></_>
    <_>
      <rects>
        <_>
          12 0 4 4 -1.</_>
        <_>
          14 0 2 4 2.</_></rects>
      <tilted>0</tilted></_>
    <_>
      <rects>
        <_>
          12 13 4 8 -1.</_>
        <_>
          12 17 4 4 2.</_></rects>
      <tilted>0</tilted></_>
    <_>
      <rects>
        <_>
          13 12 8 2 -1.</_>
        <_>
          13 13 8 1 2.</_></rects>
      <tilted>0</tilted></_>
    <_>
      <rects>
        <_>
          13 13 3 1 -1.</_>
        <_>
          14 13 1 1 2.</_></rects>
      <tilted>0</tilted></_>
    <_>
      <rects>
        <_>
          15 8 2 2 -1.</_>
        <_>
          15 8 1 1 2.</_>
        <_>
          16 9 1 1 2.</_></rects>
      <tilted>0</tilted></_>
    <_>
      <rects>
        <_>
          15 11 3 3 -1.</_>
        <_>
          15 12 3 1 2.</_></rects>
      <tilted>0</tilted></_>
    <_>
      <rects>
        <_>
          16 0 1 15 -1.</_>
        <_>
          16 5 1 5 2.</_></rects>
      <tilted>0</tilted></_>
    <_>
      <rects>
        <_>
          16 9 2 2 -1.</_>
        <_>
          16 10 2 1 2.</_></rects>
      <tilted>0</tilted></_>
    <_>
      <rects>
        <_>
          16 13 6 2 -1.</_>
        <_>
          16 13 3 1 2.</_>
        <_>
          19 14 3 1 2.</_></rects>
      <tilted>0</tilted></_>
    <_>
      <rects>
        <_>
          17 9 2 6 -1.</_>
        <_>
          17 11 2 2 2.</_></rects>
      <tilted>0</tilted></_>
    <_>
      <rects>
        <_>
          17 10 2 4 -1.</_>
        <_>
          18 10 1 4 2.</_></rects>
      <tilted>0</tilted></_>
    <_>
      <rects>
        <_>
          17 11 1 2 -1.</_>
        <_>
          17 12 1 1 2.</_></rects>
      <tilted>0</tilted></_>
    <_>
      <rects>
        <_>
          17 13 2 3 -1.</_>
        <_>
          18 13 1 3 2.</_></rects>
      <tilted>0</tilted></_>
    <_>
      <rects>
        <_>
          17 14 4 4 -1.</_>
        <_>
          17 14 2 2 2.</_>
        <_>
          19 16 2 2 2.</_></rects>
      <tilted>0</tilted></_>
    <_>
      <rects>
        <_>
          18 2 1 3 -1.</_>
        <_>
          18 3 1 1 2.</_></rects>
      <tilted>0</tilted></_>
    <_>
      <rects>
        <_>
          18 14 2 10 -1.</_>
        <_>
          19 14 1 10 2.</_></rects>
      <tilted>0</tilted></_>
    <_>
      <rects>
        <_>
          20 1 2 20 -1.</_>
        <_>
          20 11 2 10 2.</_></rects>
      <tilted>0</tilted></_>
    <_>
      <rects>
        <_>
          22 1 1 22 -1.</_>
        <_>
          22 12 1 11 2.</_></rects>
      <tilted>0</tilted></_>
    <_>
      <rects>
        <_>
          22 11 2 13 -1.</_>
        <_>
          23 11 1 13 2.</_></rects>
      <tilted>0</tilted></_></features></cascade>
</opencv_storage>
